<?xml version="1.0"?>
<opencv_storage>
<opencv_ml_ann_mlp>
  <format>3</format>
  <layer_sizes>
    6 17 6</layer_sizes>
  <activation_function>SIGMOID_SYM</activation_function>
  <f_param1>6.6666666666666663e-01</f_param1>
  <f_param2>1.7159000000000000e+00</f_param2>
  <min_val>-9.4999999999999996e-01</min_val>
  <max_val>9.4999999999999996e-01</max_val>
  <min_val1>-9.7999999999999998e-01</min_val1>
  <max_val1>9.7999999999999998e-01</max_val1>
  <training_params>
    <train_method>BACKPROP</train_method>
    <dw_scale>1.0000000000000001e-01</dw_scale>
    <moment_scale>0.</moment_scale>
    <term_criteria>
      <iterations>10000</iterations></term_criteria></training_params>
  <input_scale>
    8.1578801170065648e-02 6.4573099825534728e+00 1.0115368505005813e-01
    8.5398393819183962e+00 1.0477281153771724e-01 1.0474261498930117e+01
    4.0005068943444737e-02 1.4807102675078960e+00 6.0093891912156243e-02
    -5.2219680808091962e+00 3.0783229923303734e-02
    2.0714322298484893e+00</input_scale>
  <output_scale>
    1.1410000136024074e+00 -4.9714997410774220e-01
    1.3640526721352026e+00 1.6299962997436520e-02 1.5484999982934251e+00
    3.0562502145767223e-01 5.4690790803808920e-01
    -1.2700471282005302e-01 1.0266168964536566e+00
    -7.0226104557514191e-01 1.0952458883586684e+00
    3.9391398429870668e-02</output_scale>
  <inv_output_scale>
    8.7642417885935253e-01 4.3571425782732631e-01 7.3310952020251730e-01
    -1.1949658052369472e-02 6.4578624546469654e-01
    -1.9736843512721747e-01 1.8284614014583884e+00
    2.3222321519477429e-01 9.7407319463998498e-01 6.8405366013459457e-01
    9.1303698158465263e-01 -3.5965803522807538e-02</inv_output_scale>
  <weights>
    <_>
      -5.2695586930961369e-01 1.9938259033141217e-01
      -5.5214097815822960e-03 1.4270549279397216e-01
      1.4531872218605657e-02 -8.2126910152690935e-01
      -9.5462965773714903e-01 2.9053825235331404e-01
      2.0338229669872341e-02 2.9402163925693666e-02
      7.3116177224150458e-01 -2.3652484179920528e+00
      -6.5415554114596916e-02 -2.4685334286731800e-03
      7.2966069326285210e-01 -3.0291315907691352e-01
      -7.1982616239301619e-02 8.4800957057427828e-01
      3.7578799783911793e-01 -2.9930273342548097e-01
      3.1389675153110802e-01 4.0144144257428660e-01
      6.3708553578996130e-01 1.8059484121594780e+00
      4.7219673735291906e-01 -4.7010668670864181e-01
      2.5648707829148037e-01 -4.6692966972126521e-01
      5.0118161870807232e-01 -3.1301220529901730e-01
      -4.4879886366084715e-01 1.0003555741742430e-01
      3.6538610093410839e-01 -5.5073328369501739e-01
      6.8162227059944513e-02 1.3038642284251476e+00
      -1.2863615109491542e+00 1.1672691609166659e+00
      2.7672577872118781e-01 2.7541998554277316e+00
      -6.6676264971100774e-01 9.2823394340694387e-01
      -2.2079544815845525e-01 1.0367401344943921e+00
      2.7315581894225835e+00 1.1757575962403313e+00
      -2.6209194448606749e-01 -4.4993832106495790e-01
      6.9515085545395583e-01 3.6098781104308736e-01
      -6.9441601607704517e-01 6.4941895332776589e-01
      2.3628943944211056e-01 -2.4297473303110007e+00
      8.2137539220627920e-01 1.1884221569151301e+00
      7.9618562686655892e-01 3.8524274674533898e+00
      1.8569563631577870e+00 -1.2759623708458041e+00
      1.2112572229402685e+00 7.7098889409402971e-01
      -2.5722410297390907e+00 -7.5665428759269004e-01
      -1.2227808282341770e+00 1.2027832827467617e+00
      1.3852317850249369e+00 -1.4882595318483942e+00
      -1.5762464346379284e+00 1.5286456244728466e+00
      -1.8420629407167832e+00 4.5700179382902922e-01
      2.2673726009180564e-01 8.3526663196960194e-01
      5.2453370055120330e-01 2.0928988999523557e-01
      7.4493837993951917e-01 -1.2418422729051957e+00
      2.0442170887538474e-01 -1.0434104565414724e+00
      -2.9120584727777867e-02 -4.1685263013836493e-01
      9.5562860240592817e-01 1.3280119427419586e+00
      5.6844015375901080e-01 -1.2344280640567957e+00
      -2.6247762950456783e+00 -4.8722880645968192e-02
      -2.8406109068707526e+00 1.8027105716210532e+00
      -5.5907228184578950e-01 1.2660194676097571e+00
      -1.1391244013271447e+00 -1.7189472932553820e+00
      -4.0940854411192129e-01 1.0378071938699343e+00
      -5.9873870053701517e-01 -1.8682774808238274e+00
      1.2471622213575679e+00 2.5694413487942080e+00
      -2.3167426096276403e-01 1.4315306317618133e+00
      -2.0634610383349870e+00 -3.8223535481094478e-01
      1.5635148502632223e+00 5.0544388729059815e+00
      -3.6391028324400789e+00 -1.2919263992790408e+00
      2.7623545476402411e-01 -3.2922168910040863e+00
      1.8085768663916471e+00 2.4005360218170293e+00
      -1.1447258913744509e+00 -2.1712859481430411e+00
      -3.0995755927246393e+00 1.0075707364771880e+00
      1.9561924879033219e+00 3.1108409148560776e+00
      -4.0370771939698615e+00</_>
    <_>
      2.3476326275561279e-01 -1.7593002303547708e-02
      -2.6504894993149630e-01 2.0089520029662970e-02
      2.3186079434165446e-01 -9.9453663249746083e-02
      9.3300550732319812e-02 1.7187336084901145e-01
      -2.2352115596549243e-02 -1.7646641031613253e-01
      1.7510341888693837e-01 9.2087893718134597e-02
      -9.7860824478196107e-02 -9.5550744464838938e-02
      1.2312186957059455e-01 1.7692716467793801e-01
      -1.9218494700033086e-02 -9.6645491913128434e-02
      2.5584030833118221e-01 1.9952692136204125e-01
      -9.2152226448337621e-02 -9.2984810589821831e-02
      6.0880634003951373e-01 3.5545405118165696e-01
      9.8657676139209327e-01 8.8996472151779110e-02
      -3.4921764105953679e-01 -1.7335868719440931e-01
      8.6691063554358960e-01 7.8598243238780216e-02
      -4.7316323779084110e-02 -4.5009087706355332e-02
      -7.9473600696998506e-02 1.1212089743193980e-01
      -6.0037561519294222e-02 -3.2064956585561841e-02
      4.6060748882915482e-02 6.7603345861062411e-02
      -1.2574981479982223e-02 -5.1936285006840617e-02
      2.0933072775411657e-01 4.2817551866851607e-02
      4.5848344778589212e-01 -4.2475944547751893e-01
      -2.6900434593217004e-01 3.8391132958910346e-01
      3.4724285168277280e-01 -5.5062159743112948e-01
      4.6073750215209219e-01 -6.2793458890474618e-01
      1.5650228393692223e-01 5.8120759532781907e-01
      1.4409476088340661e-01 -6.0042306155348379e-01
      -3.8843519577259310e-02 -4.5650908378738242e-01
      1.2217177085366858e-01 4.1848249958311662e-01
      -3.3621533044376906e-01 -3.8289379062924006e-01
      -1.5748164533342376e-02 1.0366158309519823e-01
      3.4554192637493514e-02 -5.9064496036880035e-02
      1.5875817030544506e-01 6.1667209064959205e-02
      -5.4270622946066313e-02 7.5279446799596458e-02
      5.0915292690522383e-02 -1.0025330980821101e-01
      2.2879648105256625e-02 1.1945097908726553e-01
      8.7178390572930020e-01 7.2293350679686563e-02
      1.7881308762190748e-01 -2.4552489838595937e-01
      -1.0789101377588428e-01 1.8973159059359193e-01
      1.3146687801595049e+00 3.2628912837953278e-01
      1.7064858134599720e-01 -3.3602516304608104e-01
      1.5537636819931927e-01 8.8998929226290109e-03
      6.5590831814539771e-02 2.7134486956162096e-01
      -4.3557783503302624e-02 -2.8918579741137806e-01
      2.6889540451510596e-02 2.8936106636238745e-01
      1.1894604348054036e-01 2.3603155004835974e-01
      2.2632221860416948e-01 -2.8441447964183419e-01
      -4.6897134018185888e-01 1.7272518013903609e-01
      7.2580324204804714e-01 -3.4336873781072247e-01
      6.4058490332262921e-02 4.6984178216969696e-01
      4.9175864384614110e-01 -6.9193979637556677e-02
      2.0610068760903757e+00 -2.7668115671423682e-01
      -3.2554187912115762e-01 2.4547389866242136e-01
      1.3406264459553665e+00 -9.5439516150834264e-02</_></weights></opencv_ml_ann_mlp>
</opencv_storage>
